{
    "sizes": [1, 4, 4, 4, 1],
    "layers": [
        { "0": {} },
        {
            "0": {
                "bias": -1.3807711601257324,
                "weights": { "0": 1.3925693035125732 }
            },
            "1": {
                "bias": -0.07464805245399475,
                "weights": { "0": -0.5016736388206482 }
            },
            "2": {
                "bias": 0.6322538256645203,
                "weights": { "0": 0.7193995714187622 }
            },
            "3": {
                "bias": 0.4335952401161194,
                "weights": { "0": 0.6700087189674377 }
            }
        },
        {
            "0": {
                "bias": -0.19707868993282318,
                "weights": {
                    "0": 1.4391759634017944,
                    "1": -0.221138134598732,
                    "2": 0.007427218835800886,
                    "3": -0.1366342455148697
                }
            },
            "1": {
                "bias": -0.06104925647377968,
                "weights": {
                    "0": -0.11597186326980591,
                    "1": 0.09697228670120239,
                    "2": -0.07845187932252884,
                    "3": -0.3385370075702667
                }
            },
            "2": {
                "bias": 0.30950281023979187,
                "weights": {
                    "0": -0.24026177823543549,
                    "1": -0.5614583492279053,
                    "2": 1.0775814056396484,
                    "3": 0.8534963726997375
                }
            },
            "3": {
                "bias": 0.11106956005096436,
                "weights": {
                    "0": -0.9738976359367371,
                    "1": 0.24301593005657196,
                    "2": -0.160591721534729,
                    "3": -0.17224955558776855
                }
            }
        },
        {
            "0": {
                "bias": -0.28265509009361267,
                "weights": {
                    "0": -0.08582650125026703,
                    "1": -0.2307780236005783,
                    "2": 1.1940019130706787,
                    "3": 0.28042343258857727
                }
            },
            "1": {
                "bias": -0.01330120861530304,
                "weights": {
                    "0": -1.3108640909194946,
                    "1": 0.3608413338661194,
                    "2": 0.4373793601989746,
                    "3": 0.9879928827285767
                }
            },
            "2": {
                "bias": 0.9459554553031921,
                "weights": {
                    "0": 0.14464227855205536,
                    "1": -0.02351982146501541,
                    "2": -0.5775327086448669,
                    "3": -0.5189677476882935
                }
            },
            "3": {
                "bias": 0.005876072682440281,
                "weights": {
                    "0": -0.04704452306032181,
                    "1": 0.13098251819610596,
                    "2": -0.05213189870119095,
                    "3": 0.1001787930727005
                }
            }
        },
        {
            "0": {
                "bias": 2.0720818042755127,
                "weights": {
                    "0": -1.1176655292510986,
                    "1": -1.1314653158187866,
                    "2": 1.3232243061065674,
                    "3": 0.009885622188448906
                }
            }
        }
    ],
    "outputLookup": false,
    "inputLookup": false,
    "activation": "tanh",
    "trainOpts": {
        "iterations": 20000,
        "errorThresh": 0.0001,
        "log": false,
        "logPeriod": 10,
        "learningRate": 0.01,
        "momentum": 0.1,
        "callbackPeriod": 10,
        "beta1": 0.9,
        "beta2": 0.999,
        "epsilon": 1e-8
    }
}
